{
  "config": {
    "vocab_size": 32,
    "d_model": 16,
    "num_heads": 4,
    "num_kv_heads": 2,
    "num_encoder_layers": 2,
    "num_decoder_layers": 2,
    "rope_theta": 10000.0,
    "embed_scale": 4.0
  },
  "inputs": {
    "enc_ids": [
      2,
      5,
      7,
      3
    ],
    "dec_start_id": 1
  },
  "zc_rms_norm": {
    "x": [
      1.0,
      2.0,
      3.0,
      4.0
    ],
    "scale_zero": [
      0.0,
      0.0,
      0.0,
      0.0
    ],
    "out_zero": [
      0.3651483654975891,
      0.7302967309951782,
      1.0954450368881226,
      1.4605934619903564
    ],
    "scale_nonzero": [
      0.10000000149011612,
      -0.20000000298023224,
      0.30000001192092896,
      -0.4000000059604645
    ],
    "out_nonzero": [
      0.401663213968277,
      0.5842373967170715,
      1.4240785837173462,
      0.8763560652732849
    ],
    "eps": 1e-06
  },
  "rope": {
    "head_dim": 4,
    "cos_table_pos0": [
      1.0,
      1.0
    ],
    "sin_table_pos0": [
      0.0,
      0.0
    ],
    "cos_table_pos1": [
      0.5403022766113281,
      0.9999499917030334
    ],
    "sin_table_pos1": [
      0.8414709568023682,
      0.009999833069741726
    ],
    "q_before": [
      1.0,
      2.0,
      3.0,
      4.0
    ],
    "q_after_pos0": [
      1.0,
      2.0,
      3.0,
      4.0
    ]
  },
  "quantization": {
    "w_shape": [
      32,
      16
    ],
    "w": [
      [
        -0.21089035272598267,
        -1.3627947568893433,
        -0.045003850013017654,
        -1.1536394357681274,
        1.9141138792037964,
        -0.47701314091682434,
        0.6478766202926636,
        0.6747400760650635,
        2.9508726596832275,
        -0.8744792938232422,
        1.3046613931655884,
        -0.5257779955863953,
        0.5039801001548767,
        1.0394476652145386,
        -0.16569884121418,
        -0.46334150433540344
      ],
      [
        0.5581809282302856,
        -1.9151291847229004,
        0.3923465311527252,
        -0.9101471900939941,
        -0.28179800510406494,
        0.21729089319705963,
        0.36003977060317993,
        2.7376201152801514,
        0.4195331931114197,
        1.7058178186416626,
        0.4325043261051178,
        -1.899273157119751,
        -0.9917925596237183,
        1.515407919883728,
        0.25002577900886536,
        -0.4921454191207886
      ],
      [
        -1.4616400003433228,
        -0.7644298672676086,
        1.6949907541275024,
        0.08456513285636902,
        -0.004914528224617243,
        1.0899717807769775,
        -0.05314766988158226,
        -0.4205490052700043,
        -1.0034552812576294,
        2.013547420501709,
        -1.8514117002487183,
        0.29579007625579834,
        -0.1585393100976944,
        -0.4997211694717407,
        -0.17032507061958313,
        -0.33500558137893677
      ],
      [
        1.0094116926193237,
        -0.15945987403392792,
        -0.3888453543186188,
        -1.0218071937561035,
        -0.9230590462684631,
        0.47578755021095276,
        -0.009504125453531742,
        0.8625563383102417,
        1.760228157043457,
        0.8167337775230408,
        -1.0453354120254517,
        0.2280312031507492,
        1.092850685119629,
        -0.04661495238542557,
        0.1747712343931198,
        0.19660653173923492
      ],
      [
        0.20429615676403046,
        0.23696553707122803,
        1.0859071016311646,
        0.08328410238027573,
        -0.24082590639591217,
        -0.7328227758407593,
        -0.7699010372161865,
        -2.3075268268585205,
        -0.27079010009765625,
        1.8353384733200073,
        0.9717780351638794,
        -1.1208677291870117,
        0.8679116368293762,
        -0.9190666675567627,
        -1.5177698135375977,
        -2.4206957817077637
      ],
      [
        -1.275040626525879,
        0.6628986597061157,
        -0.1893165111541748,
        -1.2069865465164185,
        0.6968739032745361,
        0.14270979166030884,
        -0.38299545645713806,
        0.21213234961032867,
        1.0808814764022827,
        -0.34603962302207947,
        -0.8118306398391724,
        1.5953083038330078,
        1.3456921577453613,
        0.2808266878128052,
        0.9873475432395935,
        -0.7925453186035156
      ],
      [
        -2.197254180908203,
        0.4652843773365021,
        -0.07462875545024872,
        -0.9492586255073547,
        0.42393937706947327,
        -0.6997919082641602,
        -0.2910628020763397,
        2.657284736633301,
        0.5495539903640747,
        -0.5013387203216553,
        0.16954489052295685,
        -0.765516459941864,
        -1.7636830806732178,
        -0.26726335287094116,
        0.4428482949733734,
        -0.25772982835769653
      ],
      [
        1.0933667421340942,
        -0.9209166169166565,
        0.38918352127075195,
        -0.813673734664917,
        -0.012790381908416748,
        1.1457589864730835,
        -0.2556125819683075,
        -0.28938883543014526,
        -0.8599706888198853,
        0.6073134541511536,
        -0.5146215558052063,
        0.02985745668411255,
        0.4724062383174896,
        -0.6640883088111877,
        -0.6017118692398071,
        1.0937954187393188
      ],
      [
        -0.030644143000245094,
        -0.8220804333686829,
        0.8338339328765869,
        0.15525174140930176,
        0.37770020961761475,
        -2.058170795440674,
        -0.01836214028298855,
        -0.17054396867752075,
        -0.7744918465614319,
        0.7298182845115662,
        0.6007007360458374,
        0.06876576691865921,
        0.6924423575401306,
        -0.5775775909423828,
        1.3897051811218262,
        -0.017352886497974396
      ],
      [
        -0.6849713921546936,
        0.31281447410583496,
        -0.19761362671852112,
        0.20643089711666107,
        0.7612074017524719,
        -0.18431754410266876,
        0.04510689899325371,
        -0.6198137402534485,
        -1.3451539278030396,
        0.0379587821662426,
        2.3122172355651855,
        -0.3738958239555359,
        0.08478765189647675,
        0.5811529755592346,
        -0.4822005331516266,
        0.5793517231941223
      ],
      [
        0.1566028743982315,
        0.801775336265564,
        2.191678285598755,
        -0.43216952681541443,
        0.031170755624771118,
        -0.5754595398902893,
        0.9927667379379272,
        -0.8328496813774109,
        -0.4329783320426941,
        -0.14265531301498413,
        -0.18053820729255676,
        0.6401811242103577,
        0.09740567207336426,
        -0.505797266960144,
        0.7180526256561279,
        -0.1884358823299408
      ],
      [
        0.37195226550102234,
        0.2419634312391281,
        -0.8440368175506592,
        1.1443839073181152,
        -0.3099876344203949,
        -0.2514903247356415,
        -0.5008407235145569,
        0.9251283407211304,
        -0.9056088328361511,
        -1.8720476627349854,
        0.08434142172336578,
        -0.01066627074033022,
        -1.7167670726776123,
        0.35316136479377747,
        -1.2196366786956787,
        0.5984671711921692
      ],
      [
        -0.7115030288696289,
        -0.16522778570652008,
        1.5726295709609985,
        0.49731627106666565,
        0.9041786193847656,
        0.45784786343574524,
        1.0553532838821411,
        0.3349561393260956,
        -1.170495629310608,
        0.49805527925491333,
        0.0030360231176018715,
        0.4302225112915039,
        -0.5409860014915466,
        0.03928500786423683,
        0.5525410175323486,
        0.15958712995052338
      ],
      [
        -0.7955875992774963,
        -0.5565336346626282,
        -2.528404474258423,
        -1.5968037843704224,
        -1.9358052015304565,
        0.7638381719589233,
        0.31796205043792725,
        2.309451103210449,
        0.25519996881484985,
        -0.22790439426898956,
        -0.5497564673423767,
        1.2945860624313354,
        -1.0319586992263794,
        -0.4720993638038635,
        1.3222945928573608,
        0.8533259034156799
      ],
      [
        -0.688673734664917,
        -0.4348142743110657,
        0.2180350422859192,
        -2.6100714206695557,
        0.18366368114948273,
        0.7873125672340393,
        -0.9506943821907043,
        1.2538422346115112,
        0.9377151727676392,
        0.5160419344902039,
        -0.736297607421875,
        -0.4179786443710327,
        -0.8225678205490112,
        -1.117907166481018,
        0.3388954997062683,
        -0.4700016677379608
      ],
      [
        0.24557605385780334,
        0.47604286670684814,
        0.27017220854759216,
        0.9460817575454712,
        0.7596813440322876,
        0.4502497613430023,
        -0.6834158897399902,
        0.45313096046447754,
        1.9950612783432007,
        -0.3166769742965698,
        -0.4932715892791748,
        -0.9719032645225525,
        0.470211386680603,
        0.9678097367286682,
        0.35496968030929565,
        0.7578801512718201
      ],
      [
        1.4302177429199219,
        -0.24367684125900269,
        0.22052443027496338,
        0.539557158946991,
        -0.38262277841567993,
        0.8513776063919067,
        0.6930421590805054,
        2.035494327545166,
        1.9627608060836792,
        -0.9816865921020508,
        -0.36082372069358826,
        -0.05434345453977585,
        -0.1718035489320755,
        2.5776994228363037,
        -0.66343092918396,
        0.19584894180297852
      ],
      [
        -0.5572158694267273,
        -0.7338425517082214,
        -1.5269252061843872,
        -1.773760199546814,
        0.032491881400346756,
        -0.11328886449337006,
        -0.11720653623342514,
        -0.4012342095375061,
        1.0970228910446167,
        -0.8139874935150146,
        0.9841476678848267,
        3.2546606063842773,
        0.906476616859436,
        1.4327367544174194,
        -0.8209577798843384,
        0.2705020010471344
      ],
      [
        2.3107824325561523,
        -0.013343233615159988,
        -0.648533821105957,
        0.3506934940814972,
        -0.010188142769038677,
        -0.20379625260829926,
        -1.7169926166534424,
        -0.3585166931152344,
        -1.31229829788208,
        -0.8760299682617188,
        -0.46631330251693726,
        -0.3492167294025421,
        -1.8420737981796265,
        1.534934639930725,
        -1.7034612894058228,
        -1.1810569763183594
      ],
      [
        0.9091734886169434,
        0.24210312962532043,
        0.12173574417829514,
        -1.4010571241378784,
        0.2569114863872528,
        0.8889177441596985,
        -1.1824679374694824,
        2.1149353981018066,
        -1.371867299079895,
        1.5842516422271729,
        -1.1694406270980835,
        2.012896776199341,
        0.9866589903831482,
        -0.4536918103694916,
        0.4701816737651825,
        -0.30928102135658264
      ],
      [
        0.19926220178604126,
        -1.0447916984558105,
        0.009488437324762344,
        -0.772132933139801,
        -0.5311164259910583,
        -1.129608392715454,
        -0.7307161688804626,
        -1.1208256483078003,
        0.3731600046157837,
        -0.030337121337652206,
        1.0620667934417725,
        -0.4569619297981262,
        -0.2524418830871582,
        -1.3081480264663696,
        0.5387668609619141,
        0.9873519539833069
      ],
      [
        -0.24043402075767517,
        -0.8505277037620544,
        -0.8066340088844299,
        0.421219140291214,
        -0.36979180574417114,
        0.09896011650562286,
        -0.47235792875289917,
        -0.9909602999687195,
        -1.8004486560821533,
        1.079657793045044,
        -0.8894584774971008,
        1.124715805053711,
        0.6011015176773071,
        -0.3158417046070099,
        0.1837153285741806,
        1.0143226385116577
      ],
      [
        -0.8588169813156128,
        -1.0920418500900269,
        -0.5492490530014038,
        -1.1306722164154053,
        -0.8793728947639465,
        0.8481264710426331,
        0.6023134589195251,
        -0.6645991206169128,
        1.8868682384490967,
        1.2751730680465698,
        1.818955659866333,
        0.2605714201927185,
        1.0384126901626587,
        0.5728005170822144,
        2.116664409637451,
        1.7029101848602295
      ],
      [
        0.0986114963889122,
        -0.4524630606174469,
        1.0893847942352295,
        -0.12458479404449463,
        0.48634853959083557,
        0.9459027051925659,
        -1.1400370597839355,
        -0.7201676368713379,
        0.40688925981521606,
        -1.0883817672729492,
        0.1509476751089096,
        -2.946040391921997,
        0.8944046497344971,
        0.14567752182483673,
        0.3812447488307953,
        1.5754905939102173
      ],
      [
        0.45537644624710083,
        0.4477558135986328,
        -0.8555830121040344,
        -0.46713370084762573,
        0.456434041261673,
        1.2418497800827026,
        -0.2938387393951416,
        -1.5198463201522827,
        0.7606717944145203,
        -1.236030101776123,
        0.5957311987876892,
        0.3028629720211029,
        -0.9420385360717773,
        0.4932737648487091,
        -0.806023895740509,
        -1.097010612487793
      ],
      [
        -1.0478606224060059,
        0.9150455594062805,
        -0.06633909791707993,
        -1.378564476966858,
        -0.28437522053718567,
        -0.46742695569992065,
        -2.2718605995178223,
        -0.9874656796455383,
        0.19666987657546997,
        0.514237642288208,
        1.3023699522018433,
        0.3651599884033203,
        -0.5960550904273987,
        -0.4556944966316223,
        -0.24647864699363708,
        -0.3534274399280548
      ],
      [
        0.9665728807449341,
        -0.39006415009498596,
        1.836837649345398,
        0.9975155591964722,
        -0.3318573832511902,
        0.7064422369003296,
        -0.15226814150810242,
        -1.3366222381591797,
        3.1860833168029785,
        1.6663391590118408,
        1.9082309007644653,
        0.7791637182235718,
        -0.5257004499435425,
        -0.8312036395072937,
        -1.8871790170669556,
        1.1349352598190308
      ],
      [
        0.7534049153327942,
        -1.5134528875350952,
        -0.11676938831806183,
        0.5773285627365112,
        -0.8466544151306152,
        -0.27400311827659607,
        -0.7490849494934082,
        -0.7839705944061279,
        -1.888443112373352,
        0.9614312052726746,
        -0.2960827350616455,
        1.3552111387252808,
        0.45758411288261414,
        0.9749528765678406,
        0.24488043785095215,
        0.43861591815948486
      ],
      [
        -0.9416451454162598,
        0.7562905550003052,
        0.9853112697601318,
        0.07265257090330124,
        0.1810070276260376,
        -1.1233205795288086,
        -0.5738121867179871,
        -1.4253787994384766,
        -0.849112331867218,
        -0.6621519923210144,
        -1.0230644941329956,
        1.1029325723648071,
        0.24896781146526337,
        -0.6699499487876892,
        -1.7899045944213867,
        -0.5908328294754028
      ],
      [
        0.3687727451324463,
        0.5279774069786072,
        -0.41482582688331604,
        0.19806355237960815,
        -1.6485880613327026,
        1.4101736545562744,
        0.1534455418586731,
        -0.24250853061676025,
        0.5538715124130249,
        -0.27243268489837646,
        1.0051530599594116,
        -0.5216292142868042,
        -2.744649887084961,
        -1.1576504707336426,
        1.0475716590881348,
        -1.002338171005249
      ],
      [
        -0.04908986762166023,
        -1.7921451330184937,
        -0.5869483947753906,
        -1.0560765266418457,
        2.073834180831909,
        -1.0253742933273315,
        -0.10143968462944031,
        -0.11113585531711578,
        1.6999977827072144,
        -1.4162238836288452,
        -0.8612330555915833,
        -0.8836445808410645,
        0.06554147601127625,
        -0.32824602723121643,
        -0.5491483211517334,
        -1.5966917276382446
      ],
      [
        1.1940191984176636,
        0.6842787861824036,
        -0.9640823602676392,
        0.31312164664268494,
        -0.9975438117980957,
        0.6981433033943176,
        1.0545321702957153,
        0.535005509853363,
        -0.0040766471065580845,
        1.5827983617782593,
        -0.8022363185882568,
        0.005124447401612997,
        -0.12189514189958572,
        -0.5917068719863892,
        -0.8523696660995483,
        0.6777255535125732
      ]
    ],
    "scales": [
      [
        0.3301117718219757,
        0.2735898792743683,
        0.36120063066482544,
        0.3728673458099365,
        0.2962620258331299,
        0.29402440786361694,
        0.324551522731781,
        0.3910885751247406,
        0.45515474677085876,
        0.28764963150024414,
        0.3303167521953583,
        0.4649515151977539,
        0.39209285378456116,
        0.3682427704334259,
        0.30238062143325806,
        0.34581369161605835
      ]
    ],
    "w_quantized_int": [
      [
        -1.0,
        -5.0,
        -0.0,
        -3.0,
        6.0,
        -2.0,
        2.0,
        2.0,
        6.0,
        -3.0,
        4.0,
        -1.0,
        1.0,
        3.0,
        -1.0,
        -1.0
      ],
      [
        2.0,
        -7.0,
        1.0,
        -2.0,
        -1.0,
        1.0,
        1.0,
        7.0,
        1.0,
        6.0,
        1.0,
        -4.0,
        -3.0,
        4.0,
        1.0,
        -1.0
      ],
      [
        -4.0,
        -3.0,
        5.0,
        0.0,
        -0.0,
        4.0,
        -0.0,
        -1.0,
        -2.0,
        7.0,
        -6.0,
        1.0,
        -0.0,
        -1.0,
        -1.0,
        -1.0
      ],
      [
        3.0,
        -1.0,
        -1.0,
        -3.0,
        -3.0,
        2.0,
        -0.0,
        2.0,
        4.0,
        3.0,
        -3.0,
        0.0,
        3.0,
        -0.0,
        1.0,
        1.0
      ],
      [
        1.0,
        1.0,
        3.0,
        0.0,
        -1.0,
        -2.0,
        -2.0,
        -6.0,
        -1.0,
        6.0,
        3.0,
        -2.0,
        2.0,
        -2.0,
        -5.0,
        -7.0
      ],
      [
        -4.0,
        2.0,
        -1.0,
        -3.0,
        2.0,
        0.0,
        -1.0,
        1.0,
        2.0,
        -1.0,
        -2.0,
        3.0,
        3.0,
        1.0,
        3.0,
        -2.0
      ],
      [
        -7.0,
        2.0,
        -0.0,
        -3.0,
        1.0,
        -2.0,
        -1.0,
        7.0,
        1.0,
        -2.0,
        1.0,
        -2.0,
        -4.0,
        -1.0,
        1.0,
        -1.0
      ],
      [
        3.0,
        -3.0,
        1.0,
        -2.0,
        -0.0,
        4.0,
        -1.0,
        -1.0,
        -2.0,
        2.0,
        -2.0,
        0.0,
        1.0,
        -2.0,
        -2.0,
        3.0
      ],
      [
        -0.0,
        -3.0,
        2.0,
        0.0,
        1.0,
        -7.0,
        -0.0,
        -0.0,
        -2.0,
        3.0,
        2.0,
        0.0,
        2.0,
        -2.0,
        5.0,
        -0.0
      ],
      [
        -2.0,
        1.0,
        -1.0,
        1.0,
        3.0,
        -1.0,
        0.0,
        -2.0,
        -3.0,
        0.0,
        7.0,
        -1.0,
        0.0,
        2.0,
        -2.0,
        2.0
      ],
      [
        0.0,
        3.0,
        6.0,
        -1.0,
        0.0,
        -2.0,
        3.0,
        -2.0,
        -1.0,
        -0.0,
        -1.0,
        1.0,
        0.0,
        -1.0,
        2.0,
        -1.0
      ],
      [
        1.0,
        1.0,
        -2.0,
        3.0,
        -1.0,
        -1.0,
        -2.0,
        2.0,
        -2.0,
        -7.0,
        0.0,
        -0.0,
        -4.0,
        1.0,
        -4.0,
        2.0
      ],
      [
        -2.0,
        -1.0,
        4.0,
        1.0,
        3.0,
        2.0,
        3.0,
        1.0,
        -3.0,
        2.0,
        0.0,
        1.0,
        -1.0,
        0.0,
        2.0,
        0.0
      ],
      [
        -2.0,
        -2.0,
        -7.0,
        -4.0,
        -7.0,
        3.0,
        1.0,
        6.0,
        1.0,
        -1.0,
        -2.0,
        3.0,
        -3.0,
        -1.0,
        4.0,
        2.0
      ],
      [
        -2.0,
        -2.0,
        1.0,
        -7.0,
        1.0,
        3.0,
        -3.0,
        3.0,
        2.0,
        2.0,
        -2.0,
        -1.0,
        -2.0,
        -3.0,
        1.0,
        -1.0
      ],
      [
        1.0,
        2.0,
        1.0,
        3.0,
        3.0,
        2.0,
        -2.0,
        1.0,
        4.0,
        -1.0,
        -1.0,
        -2.0,
        1.0,
        3.0,
        1.0,
        2.0
      ],
      [
        4.0,
        -1.0,
        1.0,
        1.0,
        -1.0,
        3.0,
        2.0,
        5.0,
        4.0,
        -3.0,
        -1.0,
        -0.0,
        -0.0,
        7.0,
        -2.0,
        1.0
      ],
      [
        -2.0,
        -3.0,
        -4.0,
        -5.0,
        0.0,
        -0.0,
        -0.0,
        -1.0,
        2.0,
        -3.0,
        3.0,
        7.0,
        2.0,
        4.0,
        -3.0,
        1.0
      ],
      [
        7.0,
        -0.0,
        -2.0,
        1.0,
        -0.0,
        -1.0,
        -5.0,
        -1.0,
        -3.0,
        -3.0,
        -1.0,
        -1.0,
        -5.0,
        4.0,
        -6.0,
        -3.0
      ],
      [
        3.0,
        1.0,
        0.0,
        -4.0,
        1.0,
        3.0,
        -4.0,
        5.0,
        -3.0,
        6.0,
        -4.0,
        4.0,
        3.0,
        -1.0,
        2.0,
        -1.0
      ],
      [
        1.0,
        -4.0,
        0.0,
        -2.0,
        -2.0,
        -4.0,
        -2.0,
        -3.0,
        1.0,
        -0.0,
        3.0,
        -1.0,
        -1.0,
        -4.0,
        2.0,
        3.0
      ],
      [
        -1.0,
        -3.0,
        -2.0,
        1.0,
        -1.0,
        0.0,
        -1.0,
        -3.0,
        -4.0,
        4.0,
        -3.0,
        2.0,
        2.0,
        -1.0,
        1.0,
        3.0
      ],
      [
        -3.0,
        -4.0,
        -2.0,
        -3.0,
        -3.0,
        3.0,
        2.0,
        -2.0,
        4.0,
        4.0,
        6.0,
        1.0,
        3.0,
        2.0,
        7.0,
        5.0
      ],
      [
        0.0,
        -2.0,
        3.0,
        -0.0,
        2.0,
        3.0,
        -4.0,
        -2.0,
        1.0,
        -4.0,
        0.0,
        -6.0,
        2.0,
        0.0,
        1.0,
        5.0
      ],
      [
        1.0,
        2.0,
        -2.0,
        -1.0,
        2.0,
        4.0,
        -1.0,
        -4.0,
        2.0,
        -4.0,
        2.0,
        1.0,
        -2.0,
        1.0,
        -3.0,
        -3.0
      ],
      [
        -3.0,
        3.0,
        -0.0,
        -4.0,
        -1.0,
        -2.0,
        -7.0,
        -3.0,
        0.0,
        2.0,
        4.0,
        1.0,
        -2.0,
        -1.0,
        -1.0,
        -1.0
      ],
      [
        3.0,
        -1.0,
        5.0,
        3.0,
        -1.0,
        2.0,
        -0.0,
        -3.0,
        7.0,
        6.0,
        6.0,
        2.0,
        -1.0,
        -2.0,
        -6.0,
        3.0
      ],
      [
        2.0,
        -6.0,
        -0.0,
        2.0,
        -3.0,
        -1.0,
        -2.0,
        -2.0,
        -4.0,
        3.0,
        -1.0,
        3.0,
        1.0,
        3.0,
        1.0,
        1.0
      ],
      [
        -3.0,
        3.0,
        3.0,
        0.0,
        1.0,
        -4.0,
        -2.0,
        -4.0,
        -2.0,
        -2.0,
        -3.0,
        2.0,
        1.0,
        -2.0,
        -6.0,
        -2.0
      ],
      [
        1.0,
        2.0,
        -1.0,
        1.0,
        -6.0,
        5.0,
        0.0,
        -1.0,
        1.0,
        -1.0,
        3.0,
        -1.0,
        -7.0,
        -3.0,
        3.0,
        -3.0
      ],
      [
        -0.0,
        -7.0,
        -2.0,
        -3.0,
        7.0,
        -3.0,
        -0.0,
        -0.0,
        4.0,
        -5.0,
        -3.0,
        -2.0,
        0.0,
        -1.0,
        -2.0,
        -5.0
      ],
      [
        4.0,
        3.0,
        -3.0,
        1.0,
        -3.0,
        2.0,
        3.0,
        1.0,
        -0.0,
        6.0,
        -2.0,
        0.0,
        -0.0,
        -2.0,
        -3.0,
        2.0
      ]
    ]
  },
  "weights": {
    "embedding": [
      [
        0.017636118456721306,
        -0.008815999142825603,
        0.03682224452495575,
        0.0008504533325321972,
        -0.011450317688286304,
        0.007631880696862936,
        -0.03495849296450615,
        0.015784533694386482,
        0.026923643425107002,
        -0.03178225830197334,
        -0.013270546682178974,
        -0.016535919159650803,
        -0.03141019120812416,
        0.02248312719166279,
        0.014208517968654633,
        -0.02263854444026947
      ],
      [
        0.020456817001104355,
        0.01734169013798237,
        -0.00635994179174304,
        -0.00690180528908968,
        0.0305622685700655,
        -0.015813102945685387,
        0.02697349339723587,
        -0.01603785902261734,
        -0.006036105565726757,
        -0.013496787287294865,
        -0.025956878438591957,
        0.0025808196514844894,
        0.019820373505353928,
        0.0332062765955925,
        0.01668587699532509,
        0.01814229041337967
      ],
      [
        0.003520938102155924,
        -0.0547390840947628,
        0.019407885149121284,
        0.0030399123206734657,
        -0.028079308569431305,
        -0.0034175252076238394,
        0.014110281132161617,
        -0.0010071202414110303,
        0.005075689870864153,
        -0.009758937172591686,
        0.02800542116165161,
        -0.012183016166090965,
        0.01451216172426939,
        -0.022557608783245087,
        0.020376093685626984,
        0.014117003418505192
      ],
      [
        -0.005405597388744354,
        0.012132803909480572,
        -0.011268390342593193,
        -0.016650326550006866,
        -2.472830419719685e-05,
        -0.062320608645677567,
        -0.02495650202035904,
        0.006637409329414368,
        0.018260426819324493,
        0.015286239795386791,
        -0.002751352032646537,
        0.012933030724525452,
        0.00945255346596241,
        0.0025321771390736103,
        -0.01279369555413723,
        0.017594192177057266
      ],
      [
        0.001837584306485951,
        -0.021485265344381332,
        0.017641214653849602,
        -0.0025463621132075787,
        -0.0006675638724118471,
        0.0337485633790493,
        -0.016616525128483772,
        -0.026445021852850914,
        0.007392095867544413,
        -0.023053744807839394,
        0.0009708687430247664,
        0.02442815713584423,
        -0.0019527521217241883,
        -0.017201386392116547,
        0.010054265148937702,
        -0.0015144380740821362
      ],
      [
        -0.008458741940557957,
        0.008956846781075,
        0.020169898867607117,
        0.009213884361088276,
        0.02751089446246624,
        0.010181291960179806,
        -0.011908391490578651,
        -0.01033741608262062,
        0.008255998603999615,
        0.005977052263915539,
        -0.009436335414648056,
        0.01945331320166588,
        0.012001331895589828,
        0.013321075588464737,
        -0.003800282720476389,
        0.00713806739076972
      ],
      [
        -0.013218680396676064,
        -0.000911999901290983,
        0.002194538014009595,
        -0.008383963257074356,
        0.013255421072244644,
        0.0311350766569376,
        0.019054923206567764,
        -0.005772771779447794,
        0.016241777688264847,
        0.010718078352510929,
        0.00981159694492817,
        0.000698308867868036,
        -0.024442054331302643,
        0.011081387288868427,
        -0.0217819232493639,
        0.012054854072630405
      ],
      [
        0.055946338921785355,
        -0.014798872172832489,
        -0.0016750284703448415,
        -0.004298764746636152,
        0.020989684388041496,
        0.0036640167236328125,
        0.00534385209903121,
        -0.017748916521668434,
        0.019935624673962593,
        0.037229977548122406,
        -0.021886829286813736,
        -0.0071687279269099236,
        -0.022466445341706276,
        -0.008900709450244904,
        -0.010233904235064983,
        -0.002697878750041127
      ],
      [
        -0.02215256355702877,
        -0.011420752853155136,
        -0.04127456620335579,
        -0.0021249789278954268,
        -0.010267072357237339,
        0.0023180260322988033,
        0.008948431350290775,
        0.0009474267135374248,
        0.0024243714287877083,
        -0.018880009651184082,
        0.009608054533600807,
        0.005610242486000061,
        -0.038544923067092896,
        -0.012928984127938747,
        -0.00858060922473669,
        0.03958741948008537
      ],
      [
        -0.03683476522564888,
        0.011299191042780876,
        0.0030677798204123974,
        0.013746324926614761,
        -0.00472858315333724,
        -0.006815655622631311,
        -0.03088642843067646,
        -0.023558713495731354,
        0.0543738454580307,
        0.008332446217536926,
        0.011683985590934753,
        -0.007689924445003271,
        0.014308636076748371,
        0.0057409945875406265,
        -0.0326540581882,
        0.0233575738966465
      ],
      [
        -0.013315968215465546,
        0.01155082043260336,
        0.011731368489563465,
        -0.009265786036849022,
        -0.008462409488856792,
        0.005001779645681381,
        0.007303148973733187,
        0.020169412717223167,
        -0.03129300847649574,
        -0.0380980409681797,
        0.0006331910844892263,
        0.01620611548423767,
        -0.025790762156248093,
        -0.024244189262390137,
        -0.006231356877833605,
        -0.006353297736495733
      ],
      [
        -0.03934161737561226,
        -0.029876504093408585,
        0.013286604546010494,
        0.022182263433933258,
        -0.03929925709962845,
        0.007066789083182812,
        0.006867610849440098,
        0.00455147959291935,
        -0.027453815564513206,
        -0.03833235800266266,
        0.020573072135448456,
        -0.009675641544163227,
        0.015484961681067944,
        0.022199008613824844,
        0.03714735433459282,
        0.011626292951405048
      ],
      [
        0.000563153822440654,
        0.045039866119623184,
        0.004618195351213217,
        0.016440020874142647,
        0.0032577484380453825,
        0.01570943370461464,
        -0.0016488219844177365,
        0.0012188083492219448,
        -0.0001559328375151381,
        0.032036248594522476,
        -0.038063038140535355,
        -0.009454669430851936,
        -0.028834884986281395,
        -0.006967236753553152,
        0.030779551714658737,
        -0.013275418430566788
      ],
      [
        0.026411546394228935,
        -0.008903744630515575,
        0.019096484407782555,
        -0.0048525831662118435,
        -0.00826830230653286,
        -0.007735374383628368,
        0.020034534856677055,
        0.007333686575293541,
        0.02977791428565979,
        -0.023722780868411064,
        0.008603006601333618,
        -0.00546942139044404,
        -0.03817504644393921,
        -0.001762334955856204,
        0.003937681205570698,
        -0.009803700260818005
      ],
      [
        -0.009997306391596794,
        0.017079224810004234,
        0.008623150177299976,
        0.01215672679245472,
        0.037035778164863586,
        0.01819063350558281,
        0.0012106596259400249,
        0.012812815606594086,
        -0.016786321997642517,
        0.01627051644027233,
        0.0026143109425902367,
        -0.01841302029788494,
        -0.006243810523301363,
        0.01619320921599865,
        -0.007086401339620352,
        -0.01465819962322712
      ],
      [
        -0.01483964640647173,
        -0.002553544007241726,
        0.011247143149375916,
        -0.008698701858520508,
        -0.006277608685195446,
        0.0077507346868515015,
        -0.013448916375637054,
        0.005268855486065149,
        -0.050705425441265106,
        0.006261755712330341,
        -0.01298721507191658,
        0.028455620631575584,
        -0.0014757952885702252,
        0.035018328577280045,
        -0.03338634967803955,
        -0.011329990811645985
      ],
      [
        -0.015036433935165405,
        0.026677101850509644,
        0.032452329993247986,
        0.006983886938542128,
        0.03185294196009636,
        0.00581701984629035,
        -0.033629320561885834,
        -0.033866848796606064,
        0.02265113592147827,
        0.002001724438741803,
        -0.016781069338321686,
        -0.009672409854829311,
        -0.014652344398200512,
        0.033623047173023224,
        -0.010977290570735931,
        -0.018292078748345375
      ],
      [
        0.004693273920565844,
        0.015446801669895649,
        -0.006792100146412849,
        -0.0009488237556070089,
        -0.01615082286298275,
        0.009027600288391113,
        0.0040099299512803555,
        0.018160946667194366,
        8.734491711948067e-05,
        0.0015944535844027996,
        0.0010018872562795877,
        0.003893587738275528,
        -0.0232477355748415,
        0.004577677231281996,
        0.005562873557209969,
        0.05424642562866211
      ],
      [
        -0.009783360175788403,
        0.009624859318137169,
        -0.02916969545185566,
        -0.01444427203387022,
        0.010445313528180122,
        -0.008096560835838318,
        0.0048327455297112465,
        -0.03249689191579819,
        0.03290749341249466,
        -0.018645154312253,
        -0.004698536358773708,
        0.02648307941854,
        -0.004985339008271694,
        0.001795355579815805,
        0.017830733209848404,
        0.011841780506074429
      ],
      [
        0.013882415369153023,
        -0.04460649937391281,
        -0.0070009599439799786,
        0.01453415211290121,
        -0.043368179351091385,
        7.614529749844223e-05,
        0.009287443943321705,
        -0.02605827897787094,
        -0.024431781843304634,
        -0.004963851533830166,
        -0.004849542398005724,
        0.005173784215003252,
        -0.008888655342161655,
        0.008813058957457542,
        0.001536000519990921,
        -0.025530295446515083
      ],
      [
        0.011925123631954193,
        -0.001595547772012651,
        0.0016520151402801275,
        -0.03107701800763607,
        -0.01178393792361021,
        -0.003235212527215481,
        -0.013696382753551006,
        0.004924980457872152,
        0.009177741594612598,
        0.010754406452178955,
        0.03691020980477333,
        0.0031015323475003242,
        -0.005660340189933777,
        -0.030609773471951485,
        -0.01242460310459137,
        0.012214316055178642
      ],
      [
        -0.01174350455403328,
        0.023808518424630165,
        -0.009170720353722572,
        -0.006038695573806763,
        0.015841610729694366,
        -0.010180948302149773,
        -0.0015207912074401975,
        0.015221298672258854,
        -0.017883870750665665,
        -0.008278562687337399,
        -0.017645789310336113,
        0.005678845569491386,
        0.021498236805200577,
        -0.004155694041401148,
        0.003285336773842573,
        -0.018081730231642723
      ],
      [
        -0.015398879535496235,
        -0.008393693715333939,
        -0.008741670288145542,
        -0.005551714915782213,
        0.016461370512843132,
        -0.02684304490685463,
        0.005981370806694031,
        0.017843684181571007,
        -0.027528075501322746,
        0.006042319815605879,
        0.006962199229747057,
        -0.030821075662970543,
        0.01254565641283989,
        -0.007112446241080761,
        0.03126737102866173,
        -0.011191685684025288
      ],
      [
        -0.016859913244843483,
        -0.007251015864312649,
        -0.035279326140880585,
        -0.012909332290291786,
        -0.04643423482775688,
        -0.006760864052921534,
        -0.016607049852609634,
        0.0023405354004353285,
        0.017058460041880608,
        -0.0037358724512159824,
        0.0053049796260893345,
        -0.0033490564674139023,
        0.017384568229317665,
        -0.001424743328243494,
        -0.029876267537474632,
        -0.014582918956875801
      ],
      [
        0.013051090762019157,
        -0.006488828454166651,
        0.020586008206009865,
        -0.05922301113605499,
        -0.0008217392605729401,
        -0.012780007906258106,
        0.023699507117271423,
        0.004420322831720114,
        0.0050142668187618256,
        -0.00716355349868536,
        0.01413655374199152,
        0.03432922065258026,
        -0.029706938192248344,
        0.02222282439470291,
        0.008874603547155857,
        -0.042402904480695724
      ],
      [
        -0.020237965509295464,
        0.009218643419444561,
        -0.0037002416793257,
        -0.008170337416231632,
        0.002237290609627962,
        0.013780797831714153,
        -0.009890041314065456,
        -0.017360761761665344,
        -0.00672867801040411,
        0.00947136152535677,
        0.0032393329311162233,
        0.014710560441017151,
        -0.027255170047283173,
        -0.013829359784722328,
        -0.0177663154900074,
        -0.060472916811704636
      ],
      [
        -0.018375443294644356,
        0.0032869239803403616,
        -0.03951122611761093,
        0.024772364646196365,
        0.009443266317248344,
        0.03465081751346588,
        -0.019301563501358032,
        -0.03524298965930939,
        -0.01726492866873741,
        -0.011702693067491055,
        0.022099627181887627,
        0.023702522739768028,
        -0.016461433842778206,
        -0.01660819724202156,
        -0.012480275705456734,
        0.004360847175121307
      ],
      [
        0.033757951110601425,
        0.009708967059850693,
        -0.0029816660098731518,
        -0.015485432930290699,
        -0.0022503137588500977,
        0.001237172051332891,
        0.01124178059399128,
        -0.03535601869225502,
        0.004514510743319988,
        -0.006154200993478298,
        0.02650558575987816,
        0.012978151440620422,
        -0.03758521378040314,
        -0.008605225943028927,
        -0.012271268293261528,
        -0.0007012658170424402
      ],
      [
        -0.02556539699435234,
        -0.019502561539411545,
        0.006838363129645586,
        0.007836230099201202,
        0.06551413983106613,
        0.03802117332816124,
        -0.018018202856183052,
        0.027767116203904152,
        0.025602802634239197,
        0.012146685272455215,
        0.014431898482143879,
        -0.008107400499284267,
        -0.014934711158275604,
        0.02937290444970131,
        0.00045928810141049325,
        -0.016059206798672676
      ],
      [
        -0.0247675571590662,
        0.02002294920384884,
        -0.0007171428296715021,
        -0.0014711690600961447,
        -0.003971794154495001,
        -0.015912652015686035,
        -0.01828893832862377,
        0.006210578605532646,
        -0.02746831439435482,
        0.010155856609344482,
        0.00943002663552761,
        0.021671030670404434,
        0.03720394894480705,
        0.014821327291429043,
        -0.0022183272521942854,
        0.017984719946980476
      ],
      [
        0.0031943877693265676,
        0.0030314186587929726,
        0.017411528155207634,
        0.002933163894340396,
        -0.00613041315227747,
        0.0014322897186502814,
        0.022910308092832565,
        -0.0268655214458704,
        -0.005594383925199509,
        -0.004248817916959524,
        -0.012659793719649315,
        0.008284425362944603,
        -0.01678628847002983,
        -0.003230653004720807,
        -0.0010084424866363406,
        -0.0024971826933324337
      ],
      [
        -0.04119347780942917,
        0.012468431144952774,
        0.005088880658149719,
        0.012572754174470901,
        -6.206810940057039e-05,
        0.02153678610920906,
        0.00455088447779417,
        0.027784721925854683,
        -0.022609082981944084,
        0.028212232515215874,
        0.003145071445032954,
        0.005922863259911537,
        -0.026796387508511543,
        0.0016922203358262777,
        0.009195268154144287,
        0.007038215175271034
      ]
    ],
    "encoder_final_norm": [
      0.0,
      0.0,
      0.0,
      0.0,
      0.0,
      0.0,
      0.0,
      0.0,
      0.0,
      0.0,
      0.0,
      0.0,
      0.0,
      0.0,
      0.0,
      0.0
    ],
    "decoder_final_norm": [
      0.0,
      0.0,
      0.0,
      0.0,
      0.0,
      0.0,
      0.0,
      0.0,
      0.0,
      0.0,
      0.0,
      0.0,
      0.0,
      0.0,
      0.0,
      0.0
    ],
    "encoder_layers": [
      {
        "norm": [
          0.0,
          0.0,
          0.0,
          0.0,
          0.0,
          0.0,
          0.0,
          0.0,
          0.0,
          0.0,
          0.0,
          0.0,
          0.0,
          0.0,
          0.0,
          0.0
        ],
        "self_attn_gate": 0.0,
        "self_attn": {
          "q_proj": [
            [
              -0.008313538506627083,
              0.003320499323308468,
              0.020417850464582443,
              -0.011457069776952267,
              -0.012208063155412674,
              0.04252401739358902,
              0.013177171349525452,
              0.04323364049196243,
              0.04448402300477028,
              0.02970275469124317,
              -0.00022719716071151197,
              -0.039029523730278015,
              0.021314790472388268,
              -0.013850620947778225,
              -0.014340877532958984,
              -0.03162354230880737
            ],
            [
              0.023703742772340775,
              -0.03224240243434906,
              0.015389641746878624,
              0.018295925110578537,
              0.016953488811850548,
              -0.0007636102382093668,
              0.005059095565229654,
              0.003295689355581999,
              -0.018282046541571617,
              -0.0031774735543876886,
              0.005460131447762251,
              0.00995540339499712,
              0.022355034947395325,
              0.016301514580845833,
              -0.022204725071787834,
              0.028767555952072144
            ],
            [
              -0.021951846778392792,
              0.023670975118875504,
              -0.01635371521115303,
              -0.010103035718202591,
              0.03786332905292511,
              0.00975856278091669,
              0.006222389172762632,
              -0.00976137351244688,
              -0.002020600251853466,
              0.025563212111592293,
              0.009600261226296425,
              0.03328181058168411,
              -0.026086503639817238,
              0.010378382168710232,
              0.009140176698565483,
              0.0031896180007606745
            ],
            [
              -0.03247889131307602,
              0.008215249516069889,
              -0.007057664915919304,
              0.006626625079661608,
              0.04274405911564827,
              -0.025953063741326332,
              0.013198554515838623,
              0.0362849161028862,
              0.019224269315600395,
              0.019441837444901466,
              0.031375277787446976,
              0.0007868963293731213,
              0.012164441868662834,
              -0.012246649712324142,
              0.044370170682668686,
              0.012261440977454185
            ],
            [
              0.03143307566642761,
              0.020399130880832672,
              -0.014459353871643543,
              0.006308934651315212,
              0.0020258589647710323,
              0.032458480447530746,
              -0.004996097180992365,
              -0.0290045328438282,
              0.013941500335931778,
              0.022442128509283066,
              -0.001609397353604436,
              0.017152512446045876,
              -0.0178918968886137,
              0.06319788098335266,
              0.04181016981601715,
              -0.007212041411548853
            ],
            [
              0.015433479100465775,
              0.02172691375017166,
              -0.01984565518796444,
              0.019792767241597176,
              -0.015460476279258728,
              -0.0030566994100809097,
              0.0021483025047928095,
              0.007459830027073622,
              0.00476800138130784,
              0.0013366197235882282,
              0.006169971544295549,
              -0.005373663734644651,
              0.011123609729111195,
              0.0036117336712777615,
              0.0216976311057806,
              -0.002699471078813076
            ],
            [
              -0.02843605913221836,
              -0.021713167428970337,
              0.05417579784989357,
              0.003111948724836111,
              -0.009264062158763409,
              -0.0008421539678238332,
              0.0059484257362782955,
              -0.022692466154694557,
              -0.01429953146725893,
              -0.0014506458537653089,
              0.04897964000701904,
              0.0025918420869857073,
              -0.0010995937045663595,
              -0.010658307000994682,
              -0.04455910623073578,
              -0.016564905643463135
            ],
            [
              0.013725655153393745,
              0.019550666213035583,
              -0.008341426961123943,
              -0.013755095191299915,
              -0.0044984351843595505,
              0.02297464944422245,
              0.004931534640491009,
              0.006215019151568413,
              0.017318924888968468,
              -0.010956112295389175,
              -0.007184618152678013,
              -0.02625860832631588,
              -0.04600278288125992,
              -0.010492352768778801,
              0.02770616114139557,
              -0.008697894401848316
            ],
            [
              -0.007090308237820864,
              -0.031483057886362076,
              0.02797110006213188,
              0.013650566339492798,
              -0.012853936292231083,
              -0.015267793089151382,
              0.0337250679731369,
              -0.020842626690864563,
              0.004856426734477282,
              -0.02521648071706295,
              0.0008534442749805748,
              -0.004883714020252228,
              0.008670946583151817,
              0.009410502389073372,
              0.02491629496216774,
              0.04790453612804413
            ],
            [
              0.0007875601877458394,
              0.0009902550373226404,
              -0.0353606678545475,
              -0.008094971999526024,
              0.0038486372213810682,
              0.0016870023682713509,
              0.00010823221236933023,
              0.007595686241984367,
              0.009751010686159134,
              -0.037591367959976196,
              -0.014979816973209381,
              -0.019626835361123085,
              0.002165999496355653,
              0.026015127077698708,
              0.012742256745696068,
              -0.024777958169579506
            ],
            [
              0.01259441114962101,
              0.002086737658828497,
              -0.022989019751548767,
              0.0175324659794569,
              -0.010885105468332767,
              -0.0038390762638300657,
              0.0017749853432178497,
              0.016532963141798973,
              -0.00580659881234169,
              -0.005485932342708111,
              0.008967986330389977,
              0.022622648626565933,
              -0.014584149233996868,
              -0.023966196924448013,
              0.012168108485639095,
              0.012094545178115368
            ],
            [
              0.012134743854403496,
              0.02539469115436077,
              0.02016240917146206,
              -0.03929419815540314,
              -0.012164308689534664,
              0.03368552774190903,
              0.0018414075020700693,
              0.023036513477563858,
              0.02194610983133316,
              0.0007816571742296219,
              -0.04801775887608528,
              0.001273573492653668,
              -0.00936087965965271,
              -0.011544937267899513,
              -0.008947146125137806,
              0.03155755624175072
            ],
            [
              -0.007737441919744015,
              -0.004743118770420551,
              -0.024015024304389954,
              -0.014283069409430027,
              0.012291701510548592,
              -0.009986981749534607,
              -0.03120282106101513,
              -0.0014324664371088147,
              -0.009854822419583797,
              -0.021078847348690033,
              0.035394735634326935,
              0.027034251019358635,
              -0.024980150163173676,
              0.004825725220143795,
              -0.027931785210967064,
              -0.008125539869070053
            ],
            [
              -0.004482672084122896,
              -0.014489236287772655,
              -0.01504727452993393,
              -0.01274003554135561,
              -0.019492506980895996,
              0.04024461656808853,
              0.017629515379667282,
              0.003127537900581956,
              -0.026125432923436165,
              0.03009854629635811,
              0.041260477155447006,
              0.013552909716963768,
              -0.014817383140325546,
              0.008038109168410301,
              -0.040294546633958817,
              0.007214965298771858
            ],
            [
              -0.006141225341707468,
              0.01604493521153927,
              -0.03145626559853554,
              0.008430775254964828,
              0.009201213717460632,
              0.006853723432868719,
              0.03360066935420036,
              -0.01314160879701376,
              0.013326574116945267,
              0.02246207185089588,
              -0.003808022942394018,
              -0.019725164398550987,
              -0.022133881226181984,
              0.017342083156108856,
              0.0017088644672185183,
              0.05081431567668915
            ],
            [
              -0.01670899987220764,
              -0.013475819490849972,
              0.006629043258726597,
              -0.01119248941540718,
              -0.03237316384911537,
              0.009912930428981781,
              0.007326298858970404,
              -0.037232186645269394,
              0.002880038460716605,
              -0.0103487903252244,
              0.021659737452864647,
              -0.051339030265808105,
              0.041236817836761475,
              0.024730127304792404,
              -0.0011801172513514757,
              -0.009856145828962326
            ]
          ],
          "k_proj": [
            [
              0.005266287829726934,
              0.018499009311199188,
              0.0034543497022241354,
              0.008901035413146019,
              0.0028441620524972677,
              0.007061350159347057,
              0.006815766450017691,
              0.0017033222829923034
            ],
            [
              -0.007353009656071663,
              0.0108082490041852,
              0.002023876877501607,
              0.04324917122721672,
              -0.017698053270578384,
              0.009505873546004295,
              0.0032094058115035295,
              0.001900159870274365
            ],
            [
              -0.007849566638469696,
              0.0220310278236866,
              0.0021565016359090805,
              0.01385917142033577,
              -0.002284315414726734,
              -0.0033350633457303047,
              0.010045227594673634,
              -0.0027260517235845327
            ],
            [
              0.002977420575916767,
              0.012027036398649216,
              0.03236731141805649,
              0.002114705042913556,
              0.0071323104202747345,
              0.020646588876843452,
              0.0034275890793651342,
              0.020992981269955635
            ],
            [
              -0.028179319575428963,
              -0.0038030087016522884,
              -0.003079314948990941,
              0.031519532203674316,
              -0.008675913326442242,
              0.01449325680732727,
              -0.0033711984287947416,
              0.025034889578819275
            ],
            [
              -0.019224492833018303,
              -0.0011345495004206896,
              -0.02590380422770977,
              0.00226371712051332,
              0.0047362130135297775,
              -0.0035491865128278732,
              0.027490131556987762,
              0.03741821274161339
            ],
            [
              0.0029957015067338943,
              0.01365741714835167,
              0.007912944070994854,
              0.021976511925458908,
              0.01582222804427147,
              0.008882780559360981,
              -0.03591788932681084,
              -0.0076004816219210625
            ],
            [
              -4.085827458766289e-05,
              0.002218913519755006,
              0.00665196031332016,
              0.0027699866332113743,
              0.004742549732327461,
              0.018762847408652306,
              -0.0024722253438085318,
              -0.00814848206937313
            ],
            [
              -0.022245656698942184,
              -0.008806456811726093,
              -0.012922805733978748,
              0.0054336427710950375,
              0.01293308287858963,
              0.0032700549345463514,
              -0.02911227010190487,
              0.009366570971906185
            ],
            [
              0.03339654952287674,
              -0.031786635518074036,
              -0.009114023298025131,
              -0.03679528087377548,
              0.02741124853491783,
              -0.018349921330809593,
              0.007165072951465845,
              0.0031264307908713818
            ],
            [
              0.0005870269378647208,
              -0.002547970972955227,
              -0.010269847698509693,
              0.010241735726594925,
              0.02524593099951744,
              -0.0003442963061388582,
              -0.01947750337421894,
              0.03523298725485802
            ],
            [
              0.03121858462691307,
              -0.03478702902793884,
              -0.003181141335517168,
              -0.0061984919011592865,
              0.015455156564712524,
              0.013433902524411678,
              -0.007265537977218628,
              -0.060435451567173004
            ],
            [
              -0.010818634182214737,
              -0.0017792843282222748,
              0.039860907942056656,
              0.005068833474069834,
              0.004868959542363882,
              0.005414068698883057,
              -0.01589937135577202,
              -0.006709720473736525
            ],
            [
              -0.033459972590208054,
              0.008486333303153515,
              0.0008324429509229958,
              0.02592441439628601,
              -0.028812263160943985,
              -0.01971638947725296,
              -0.00045360016520135105,
              0.02634068951010704
            ],
            [
              -0.04600851610302925,
              0.003046961734071374,
              -0.012024061754345894,
              -0.005870622582733631,
              -0.004642145242542028,
              0.004875257611274719,
              -0.010181398130953312,
              -0.020643601194024086
            ],
            [
              -0.004141094163060188,
              -0.02016480825841427,
              0.021690132096409798,
              0.013812648132443428,
              -0.0037593310698866844,
              0.009086433798074722,
              -0.009095833636820316,
              0.016853364184498787
            ]
          ],
          "v_proj": [
            [
              0.006570133846253157,
              0.016949903219938278,
              -0.008127051405608654,
              0.006927553564310074,
              0.01912582665681839,
              -0.010491804219782352,
              -0.03457153961062431,
              0.006319217383861542
            ],
            [
              0.010188312269747257,
              -0.005780760198831558,
              0.0072118910029530525,
              0.013729051686823368,
              -0.03622230142354965,
              0.017134306952357292,
              0.0033030682243406773,
              0.01801498793065548
            ],
            [
              -0.03322967514395714,
              -0.021038055419921875,
              0.01597348228096962,
              0.01972717046737671,
              0.0013175613712519407,
              -0.009880776517093182,
              0.009377576410770416,
              -0.003250671783462167
            ],
            [
              0.010956545360386372,
              -0.012491871602833271,
              -0.01061142235994339,
              0.011503158137202263,
              0.015629714354872704,
              -0.033178314566612244,
              -0.028382139280438423,
              -0.010445110499858856
            ],
            [
              -0.006305388640612364,
              -0.008319695480167866,
              0.023588981479406357,
              -0.012027706950902939,
              0.0010596110951155424,
              -0.0182119682431221,
              0.00574661185964942,
              -0.029341792687773705
            ],
            [
              -0.02222581021487713,
              0.022408602759242058,
              -0.022211598232388496,
              0.039024852216243744,
              -0.01854468323290348,
              0.020354894921183586,
              -0.013819638639688492,
              -0.011048992164433002
            ],
            [
              0.015988660976290703,
              0.012480285950005054,
              -0.013617674820125103,
              -0.014299909584224224,
              -0.03310234472155571,
              -0.010217334143817425,
              -0.014915920794010162,
              -0.006309113465249538
            ],
            [
              0.005901017691940069,
              0.009987086988985538,
              -0.009390302002429962,
              0.01270331721752882,
              0.04065142571926117,
              -0.020248008891940117,
              -0.04179129749536514,
              -0.003949335310608149
            ],
            [
              -0.019426031038165092,
              -0.0017968649044632912,
              0.003264985280111432,
              -0.03823927417397499,
              0.019818194210529327,
              0.01345352828502655,
              0.002704968210309744,
              0.02189694344997406
            ],
            [
              0.0026785179506987333,
              0.0050015696324408054,
              -0.018409796059131622,
              -0.03092755563557148,
              0.018501155078411102,
              0.025936909019947052,
              0.011406810022890568,
              -0.012075725942850113
            ],
            [
              0.014243044890463352,
              0.012582739815115929,
              0.007955209352076054,
              -0.012608446180820465,
              -0.02538137510418892,
              0.027742991223931313,
              -0.009535514749586582,
              0.0030128424987196922
            ],
            [
              0.008503179997205734,
              -0.004444715101271868,
              -0.02381075918674469,
              0.0018287504790350795,
              -0.004459626041352749,
              -0.04651746526360512,
              -0.0033921918366104364,
              -0.013285603374242783
            ],
            [
              0.02716093137860298,
              -0.013496847823262215,
              0.011172125115990639,
              -0.033183708786964417,
              0.026099499315023422,
              0.009376603178679943,
              -0.01833316683769226,
              0.014792502857744694
            ],
            [
              -0.015766452997922897,
              0.00035232066875323653,
              0.04013180360198021,
              0.021492788568139076,
              -0.01887369342148304,
              0.02210068516433239,
              0.02145490236580372,
              -0.00943940132856369
            ],
            [
              -0.0009516656864434481,
              -0.005436901468783617,
              -0.013127128593623638,
              -0.0020630008075386286,
              0.014713441953063011,
              -0.016891924664378166,
              -0.007227100897580385,
              -0.028123315423727036
            ],
            [
              -0.0025221682153642178,
              -0.004902113229036331,
              -0.005702005233615637,
              0.013810288161039352,
              0.030914217233657837,
              -0.030493924394249916,
              -0.018274962902069092,
              0.005260268226265907
            ]
          ],
          "out_proj": [
            [
              0.003476617857813835,
              0.019343947991728783,
              -0.00938598532229662,
              -0.005508164409548044,
              0.001338345929980278,
              -0.0029646449256688356,
              0.003021595301106572,
              -0.00031876887078396976,
              -0.012444551102817059,
              -0.004951323848217726,
              -0.0026674659457057714,
              -0.0003124068316537887,
              -0.0003494511474855244,
              0.006576843559741974,
              -0.001559909200295806,
              -0.010386768728494644
            ],
            [
              0.024555088952183723,
              0.0036369157023727894,
              -0.0028439525049179792,
              0.008998138830065727,
              -0.0003397687687538564,
              -0.00891020055860281,
              0.010912436060607433,
              -0.002728481777012348,
              0.0007399062160402536,
              -0.007423791568726301,
              -0.017096832394599915,
              -0.01191378477960825,
              0.006406492553651333,
              0.004796075168997049,
              0.007227519527077675,
              -0.003910347353667021
            ],
            [
              0.009169405326247215,
              0.0002083528379444033,
              -0.010608608834445477,
              0.001880789641290903,
              0.005033082328736782,
              -0.0060163806192576885,
              0.0009751634788699448,
              0.003752036252990365,
              0.010765337385237217,
              0.0015170375118032098,
              0.0038388974498957396,
              0.007806982379406691,
              0.006170086562633514,
              -0.0005016532959416509,
              -0.0020388399716466665,
              -0.0009646365651860833
            ],
            [
              -0.0013508343836292624,
              -0.00597517192363739,
              -0.0053632562048733234,
              0.00466523552313447,
              -0.003189690876752138,
              0.012144050560891628,
              -0.0006447202758863568,
              0.003204681910574436,
              -0.004423261154443026,
              0.0061749923042953014,
              0.004361765459179878,
              -0.007466400507837534,
              0.0059670815244317055,
              0.01105429232120514,
              0.0028221621178090572,
              -0.010991902090609074
            ],
            [
              -0.015337939374148846,
              0.002692503621801734,
              -0.002627976704388857,
              0.0021976667921990156,
              0.0008133201044984162,
              -0.008872302249073982,
              -0.006139093078672886,
              0.003069600323215127,
              -0.00315463007427752,
              0.005643947049975395,
              0.007937339134514332,
              -0.0009777031373232603,
              0.0010252270149067044,
              0.003202996216714382,
              0.0008595628314651549,
              0.016242563724517822
            ],
            [
              0.0008994261734187603,
              0.004480564966797829,
              0.010574907064437866,
              0.00836157239973545,
              -0.009358643554151058,
              -0.0007128588040359318,
              -0.008912360295653343,
              -0.0019716257229447365,
              0.003829873399809003,
              0.0027059009298682213,
              -0.0008822869276627898,
              0.008372815325856209,
              -0.005391563754528761,
              0.005446029826998711,
              -0.014930271543562412,
              -0.00748286210000515
            ],
            [
              -0.009113630279898643,
              0.001964866416528821,
              0.01702834665775299,
              -0.0017216233536601067,
              -9.417974797543138e-05,
              -0.011957941576838493,
              0.006734684109687805,
              -0.0035891507286578417,
              -8.226824138546363e-05,
              0.0003146751841995865,
              0.022536473348736763,
              -0.014165862463414669,
              -0.005478161387145519,
              -0.005589867476373911,
              -0.006192982196807861,
              0.0018902434967458248
            ],
            [
              -0.002252577804028988,
              -0.0027378760278224945,
              0.0009222889202646911,
              0.0024854023940861225,
              -0.008137736469507217,
              0.0021889740601181984,
              0.002566470531746745,
              -0.01056056097149849,
              -0.00045120040886104107,
              -0.0009579574689269066,
              -0.009482743218541145,
              0.002847619354724884,
              0.008056960999965668,
              -0.006238824687898159,
              0.0002524731680750847,
              0.007190094329416752
            ],
            [
              0.00016822248289827257,
              0.009249981492757797,
              0.001590390456840396,
              -0.0013094344176352024,
              0.0055449353531003,
              -0.007699039299041033,
              -0.004323617555201054,
              -0.002974872710183263,
              -0.00171130639500916,
              -0.011556006036698818,
              -0.0058286539278924465,
              -0.0025181954260915518,
              -0.0017976751551032066,
              -0.018498625606298447,
              0.004643367137759924,
              0.0003556888841558248
            ],
            [
              9.117385343415663e-05,
              -0.011577265337109566,
              0.010943836532533169,
              -0.004861591849476099,
              -0.004038012586534023,
              0.01777779869735241,
              -0.011806846596300602,
              -0.0027049651835113764,
              0.010972137562930584,
              0.00391940725967288,
              -0.002961332444101572,
              0.004175414796918631,
              -0.011283772997558117,
              -0.002565934555605054,
              0.0020092667546123266,
              -0.005445263814181089
            ],
            [
              -3.1649149605073035e-05,
              -0.003980909939855337,
              -0.009555087424814701,
              0.011541168205440044,
              0.004480309318751097,
              0.011362583376467228,
              0.0022645569406449795,
              0.0006939636659808457,
              -0.002879226813092828,
              0.00972500815987587,
              -2.8395206754794344e-05,
              -0.0045708860270679,
              -0.006268082186579704,
              0.0036337904166430235,
              -0.0001704047026578337,
              -0.005833383183926344
            ],
            [
              0.0024330834858119488,
              -0.010602010414004326,
              0.00909764040261507,
              -0.007961416617035866,
              0.006192298606038094,
              -0.0019529300043359399,
              -0.005415140185505152,
              -0.004147954750806093,
              0.009970388375222683,
              -0.0037410769145935774,
              -0.0046758223325014114,
              0.0066612171940505505,
              0.011921991594135761,
              -0.003326054196804762,
              0.010774286463856697,
              -0.0024475001264363527
            ],
            [
              -0.006908765062689781,
              0.0016135844634845853,
              0.001121327979490161,
              -0.00965852104127407,
              0.00919013936072588,
              -0.0037651907186955214,
              -0.010899243876338005,
              -0.0010227342136204243,
              -0.0021706796251237392,
              -0.0013554352335631847,
              0.01209833100438118,
              0.0054367706179618835,
              -0.006502718664705753,
              -0.004979358986020088,
              0.005253152921795845,
              -0.004207119345664978
            ],
            [
              -0.003446883289143443,
              -0.008586820214986801,
              -0.00885803997516632,
              -0.004678807221353054,
              0.0058652847073972225,
              -0.0004631612973753363,
              -0.004322751425206661,
              0.0030156748834997416,
              0.006374797783792019,
              -0.004909897223114967,
              -0.008811126463115215,
              0.010162806138396263,
              0.00757519481703639,
              0.003911712672561407,
              -0.006890429649502039,
              0.01749604009091854
            ],
            [
              -0.0003937994479201734,
              -0.0017609641654416919,
              0.006436238065361977,
              -0.0033391134347766638,
              0.0032124994322657585,
              -0.00954023003578186,
              0.003377719782292843,
              0.007086924742907286,
              0.0002024151326622814,
              0.000220693793380633,
              0.0032662132289260626,
              -0.0021906907204538584,
              -0.0024482940789312124,
              -0.0066656325943768024,
              0.0061175161972641945,
              -0.00887890812009573
            ],
            [
              -0.017112355679273605,
              -0.008819826878607273,
              -0.02039201930165291,
              0.012774204835295677,
              -0.0023863581009209156,
              -0.005752230063080788,
              0.012297391891479492,
              0.003584329504519701,
              0.0014711846597492695,
              0.0073540606535971165,
              -0.021708186715841293,
              0.005971366073936224,
              -0.004224733449518681,
              -0.005598084069788456,
              0.014942456036806107,
              -0.0074334703385829926
            ]
          ],
          "q_norm": [
            0.0,
            0.0,
            0.0,
            0.0
          ],
          "k_norm": [
            0.0,
            0.0,
            0.0,
            0.0
          ]
        }
      },
      {
        "norm": [
          0.0,
          0.0,
          0.0,
          0.0,
          0.0,
          0.0,
          0.0,
          0.0,
          0.0,
          0.0,
          0.0,
          0.0,
          0.0,
          0.0,
          0.0,
          0.0
        ],
        "self_attn_gate": 0.0,
        "self_attn": {
          "q_proj": [
            [
              0.0007868544780649245,
              -0.002110825851559639,
              -0.006000382360070944,
              -0.005713881459087133,
              -0.03417586535215378,
              -0.016942059621214867,
              -0.006428769789636135,
              -0.00358014740049839,
              0.03193444386124611,
              -0.03408145159482956,
              0.0111561743542552,
              0.006349950563162565,
              -0.03363396227359772,
              0.0002560437424108386,
              -0.01197922695428133,
              -0.019443949684500694
            ],
            [
              0.0019262636778876185,
              0.00971780251711607,
              0.014095835387706757,
              -0.018726136535406113,
              0.02645382657647133,
              -0.010542950592935085,
              -0.00910722091794014,
              0.014062982052564621,
              0.03428123891353607,
              -0.03219030424952507,
              0.009872738271951675,
              -0.008535661734640598,
              -0.011104085482656956,
              0.004461939446628094,
              0.00103370426222682,
              -0.008757020346820354
            ],
            [
              0.04116344451904297,
              0.006227589678019285,
              0.008040403015911579,
              -0.006958252750337124,
              -0.007523740641772747,
              -0.04021432250738144,
              -0.0219380222260952,
              -0.006879215594381094,
              -0.004813823848962784,
              -0.012040282599627972,
              -0.04202336072921753,
              -0.004147762432694435,
              -0.0025737478863447905,
              0.024865811690688133,
              0.012595481239259243,
              0.034050460904836655
            ],
            [
              -0.008409399539232254,
              -0.016702502965927124,
              -0.022893136367201805,
              -0.013594099320471287,
              -0.004409524146467447,
              -0.015498430468142033,
              0.002005676506087184,
              0.023942962288856506,
              0.013920903205871582,
              -0.009914509020745754,
              0.031121892854571342,
              0.021538663655519485,
              -0.0015145819634199142,
              0.031019574031233788,
              0.021868841722607613,
              0.005939792841672897
            ],
            [
              0.007200201973319054,
              0.01259675808250904,
              -0.0411539301276207,
              -0.029011650010943413,
              -0.005653317552059889,
              0.015063297003507614,
              -0.022799745202064514,
              -0.027402730658650398,
              -0.0006553357234224677,
              -0.03855979070067406,
              -0.0029347920790314674,
              -0.01645822264254093,
              -2.2097246983321384e-06,
              -0.005808980204164982,
              0.022375071421265602,
              0.004414915572851896
            ],
            [
              0.008681891486048698,
              -0.012051883153617382,
              -0.033220481127500534,
              -0.00872225221246481,
              0.02595982700586319,
              0.015586546622216702,
              0.01907614804804325,
              -0.002625929657369852,
              0.0170056764036417,
              -0.025629667565226555,
              0.009676122106611729,
              -0.0031611882150173187,
              0.01742107979953289,
              -0.01746313087642193,
              0.0013558052014559507,
              -0.008437912911176682
            ],
            [
              0.014377707615494728,
              0.002132272347807884,
              0.03843633830547333,
              -0.0176257137209177,
              0.0026619902346283197,
              0.020573507994413376,
              -0.014584057033061981,
              0.02937290258705616,
              0.007219551596790552,
              0.021132823079824448,
              -0.031290631741285324,
              -0.03205937147140503,
              -0.015743590891361237,
              -0.018791956827044487,
              0.03357638046145439,
              0.003086738521233201
            ],
            [
              -0.01877608150243759,
              -0.010790122672915459,
              0.015852024778723717,
              -0.0035299304872751236,
              0.03795478865504265,
              0.026999276131391525,
              -0.02208094857633114,
              0.018967391923069954,
              0.023415766656398773,
              -0.016487903892993927,
              -0.004484326578676701,
              -0.03513498976826668,
              -0.0012215595925226808,
              -0.02124844491481781,
              0.014475700445473194,
              -0.0032611668575555086
            ],
            [
              -0.01377189066261053,
              0.0145163144916296,
              0.04209960624575615,
              0.029125092551112175,
              0.0013328284258022904,
              0.015460384078323841,
              -0.020789582282304764,
              0.016828376799821854,
              0.029726974666118622,
              -0.005263234488666058,
              -0.042901892215013504,
              0.02295578084886074,
              0.006892655976116657,
              0.01888664998114109,
              -0.011491824872791767,
              0.030736224725842476
            ],
            [
              -0.027194945141673088,
              0.02218378707766533,
              -0.0031508952379226685,
              0.010286048986017704,
              -0.00018047225603368133,
              0.0038746539503335953,
              -0.02776588685810566,
              0.041676927357912064,
              0.02289467304944992,
              0.05227629467844963,
              -0.005467380862683058,
              0.01692909002304077,
              -0.006676266901195049,
              0.00019351007358636707,
              0.012252326123416424,
              0.04776902496814728
            ],
            [
              0.0033168578520417213,
              0.012601269409060478,
              -0.019065720960497856,
              0.0049515473656356335,
              -0.011457197368144989,
              0.0031340597197413445,
              -0.020819302648305893,
              -0.0426335334777832,
              -0.010212479159235954,
              -0.03125951811671257,
              -0.015889905393123627,
              -0.028927791863679886,
              0.015545682050287724,
              -0.005125800147652626,
              -0.004276500083506107,
              -0.014158723875880241
            ],
            [
              0.001943285926245153,
              0.009331246837973595,
              -0.01974647119641304,
              -0.02473602630198002,
              -0.01594536006450653,
              0.01711251772940159,
              0.015159361064434052,
              0.010394672863185406,
              -0.008137034252285957,
              -0.03877010941505432,
              -0.01618007943034172,
              0.06518087536096573,
              0.015206972137093544,
              0.03357812017202377,
              0.005561208818107843,
              -0.02285584807395935
            ],
            [
              0.011778312735259533,
              0.001329300575889647,
              0.000653168186545372,
              -0.02061687782406807,
              -0.006848548538982868,
              -0.015138554386794567,
              -0.06139802187681198,
              0.03339748829603195,
              -0.003699797671288252,
              0.025704609230160713,
              0.0261717289686203,
              0.021115265786647797,
              -0.011977174319326878,
              -0.015184761956334114,
              0.02277500182390213,
              -0.010149232111871243
            ],
            [
              -0.0248913262039423,
              -0.013704686425626278,
              -0.022325865924358368,
              0.008375922217965126,
              -0.001605410361662507,
              -0.046443793922662735,
              -0.02724095806479454,
              -0.029135441407561302,
              0.006139530334621668,
              0.017760733142495155,
              0.01037212647497654,
              0.036354076117277145,
              -0.0025305417366325855,
              -0.025139393284916878,
              0.004320635460317135,
              -0.003549131564795971
            ],
            [
              -0.007413065526634455,
              0.0034973055589944124,
              -0.04555382952094078,
              0.02569853514432907,
              -0.03185930848121643,
              0.00898994505405426,
              0.004302223678678274,
              0.03649820014834404,
              0.028104480355978012,
              -0.023015940561890602,
              -0.01174099836498499,
              0.006409978494048119,
              -0.003379472764208913,
              0.008792892098426819,
              0.04862112179398537,
              -0.011445079930126667
            ],
            [
              0.00975677277892828,
              -0.03719324991106987,
              -0.01995907537639141,
              0.03757786750793457,
              -0.002153505105525255,
              -0.003255680203437805,
              0.02173478528857231,
              0.007562206592410803,
              -0.06389281153678894,
              -0.026686973869800568,
              0.020951494574546814,
              -0.02574668452143669,
              0.02451108954846859,
              0.0012017267290502787,
              -0.030739465728402138,
              0.005381907802075148
            ]
          ],
          "k_proj": [
            [
              -0.02890734188258648,
              0.01489292923361063,
              0.013750646263360977,
              -0.023070501163601875,
              -0.00017800397472456098,
              -0.04389259219169617,
              -0.008549200370907784,
              -0.0012629891280084848
            ],
            [
              0.0006715732160955667,
              0.003966853488236666,
              0.011511042714118958,
              -0.012764275074005127,
              0.0023536658845841885,
              0.0314459465444088,
              0.02824653685092926,
              0.006622231099754572
            ],
            [
              0.00316082825884223,
              -0.018443437293171883,
              -0.0033890940248966217,
              -0.007791894022375345,
              0.018703734502196312,
              -0.015955952927470207,
              0.057266365736722946,
              -0.012791525572538376
            ],
            [
              -0.004634698387235403,
              0.00859102513641119,
              -0.003457215614616871,
              -0.003606555052101612,
              -0.01354612410068512,
              0.009641584008932114,
              -0.025538163259625435,
              -0.04078061133623123
            ],
            [
              -0.046672362834215164,
              -0.0019596698693931103,
              0.0029263016767799854,
              0.00623442092910409,
              0.01014093030244112,
              0.00785309448838234,
              -0.05993175879120827,
              0.014024904929101467
            ],
            [
              -0.03035607375204563,
              0.020424433052539825,
              -0.02739132009446621,
              0.0014099539257586002,
              0.018450269475579262,
              0.03984871506690979,
              2.8580010621226393e-05,
              -0.02223443239927292
            ],
            [
              0.015080499462783337,
              0.008841478265821934,
              -0.009233475662767887,
              -0.00893973559141159,
              -0.007772219832986593,
              0.003367315512150526,
              -0.006750873755663633,
              -0.016692858189344406
            ],
            [
              0.0016098081832751632,
              -0.0030764969997107983,
              0.010674611665308475,
              -0.01577138714492321,
              0.018651891499757767,
              -0.03431602194905281,
              0.015545082278549671,
              -0.013879909180104733
            ],
            [
              -0.030016934499144554,
              -0.025389665737748146,
              -0.038487471640110016,
              -0.008442831225693226,
              -0.010536001063883305,
              -0.011889887042343616,
              -0.0165718887001276,
              -0.02275479957461357
            ],
            [
              0.016841424629092216,
              0.012684736400842667,
              -0.0071030184626579285,
              0.009295905008912086,
              0.028761671856045723,
              -0.017103318125009537,
              -0.016936277970671654,
              0.020091012120246887
            ],
            [
              -0.01963227055966854,
              -0.0057145352475345135,
              -0.006908370181918144,
              0.01141445990651846,
              0.001265782630071044,
              0.003525089705362916,
              -0.00493686692789197,
              0.01489331480115652
            ],
            [
              -0.0030792062170803547,
              -0.009827463887631893,
              0.03575122728943825,
              -0.00835038535296917,
              -0.023637231439352036,
              0.01611168496310711,
              -0.02677297405898571,
              -0.0017864421242848039
            ],
            [
              0.013806336559355259,
              -0.007450339384377003,
              -0.04235630854964256,
              -0.02590319514274597,
              0.01292079221457243,
              -0.022545894607901573,
              -0.006829780992120504,
              -0.02355438470840454
            ],
            [
              0.019868161529302597,
              0.0028318471740931273,
              0.023498402908444405,
              -0.008795158937573433,
              -0.012497958727180958,
              -0.033813830465078354,
              -0.010149327106773853,
              -0.014066589064896107
            ],
            [
              -0.018466314300894737,
              0.003951014019548893,
              0.021396039053797722,
              -0.008733795024454594,
              -0.009893659502267838,
              -0.0027994257397949696,
              0.01924162544310093,
              0.017726266756653786
            ],
            [
              0.016831783577799797,
              -0.007388662546873093,
              0.014965536072850227,
              -0.03237779438495636,
              -0.0039909351617097855,
              0.005406717304140329,
              -0.030624570325016975,
              -0.003111643251031637
            ]
          ],
          "v_proj": [
            [
              0.006460423115640879,
              0.013891877606511116,
              -0.02583652175962925,
              0.020217636600136757,
              0.02133556455373764,
              0.004169273655861616,
              0.03041897527873516,
              -0.03345012292265892
            ],
            [
              -0.020938407629728317,
              -0.012627076357603073,
              0.004870640579611063,
              -0.012829509563744068,
              0.04409097507596016,
              -0.014157087542116642,
              -0.003078837413340807,
              -0.006020733620971441
            ],
            [
              0.005253945477306843,
              0.015844907611608505,
              -0.016244683414697647,
              0.04637175425887108,
              0.020766470581293106,
              0.02543884515762329,
              -0.01413776259869337,
              0.007664073724299669
            ],
            [
              0.012234559282660484,
              0.004402123857289553,
              -0.0371880978345871,
              0.040223777294158936,
              0.007455402985215187,
              -0.013198848813772202,
              0.0054685561917722225,
              0.0018773063784465194
            ],
            [
              -0.012744054198265076,
              0.033845726400613785,
              -0.015894362702965736,
              0.00829074252396822,
              -0.02954288385808468,
              -0.004674162250012159,
              0.047652196139097214,
              0.0048469421453773975
            ],
            [
              0.01800454594194889,
              -0.0033019441179931164,
              0.04071192443370819,
              -0.008809012360870838,
              -0.01449053455144167,
              0.025857731699943542,
              -0.04452976956963539,
              0.02152460440993309
            ],
            [
              0.039529476314783096,
              -0.024857716634869576,
              -0.02618570066988468,
              -0.017027249559760094,
              -0.009735113009810448,
              -0.02761380933225155,
              0.015904072672128677,
              -0.014099609106779099
            ],
            [
              0.005929481703788042,
              -0.01257526408880949,
              -0.019150247797369957,
              -0.025350024923682213,
              0.0030211054254323244,
              -0.01900952123105526,
              0.006138064432889223,
              0.005246535409241915
            ],
            [
              0.013259366154670715,
              0.009632891975343227,
              0.005545655731111765,
              -0.018968475982546806,
              0.02819257229566574,
              -0.035494208335876465,
              -0.010595513507723808,
              -0.013807038776576519
            ],
            [
              0.004864915274083614,
              0.019748013466596603,
              -0.012513670139014721,
              0.01621982268989086,
              -0.03226332738995552,
              -0.029946450144052505,
              -0.0031040699686855078,
              -0.026670170947909355
            ],
            [
              0.005267092026770115,
              0.036616139113903046,
              0.01665424183011055,
              -0.05013514310121536,
              0.0003533068811520934,
              -0.0012399413390085101,
              0.027676593512296677,
              0.0012245862744748592
            ],
            [
              -0.003949456848204136,
              0.03488234803080559,
              0.016988463699817657,
              -0.03676629438996315,
              -0.0015859195264056325,
              0.0118050342425704,
              -0.04297681525349617,
              -0.00021579374151770025
            ],
            [
              0.004978647921234369,
              -0.0013294951058924198,
              0.0072893016040325165,
              0.010563923977315426,
              0.003783790161833167,
              -0.037682969123125076,
              -0.02720743790268898,
              0.007145303301513195
            ],
            [
              0.03850105032324791,
              0.03440718352794647,
              -0.03052171878516674,
              0.011496339924633503,
              0.011271742172539234,
              -0.0015624198131263256,
              0.039016034454107285,
              -0.03253382071852684
            ],
            [
              0.009473802521824837,
              0.005045121069997549,
              -0.01757717691361904,
              -0.010349098592996597,
              0.029380792751908302,
              -0.00447010388597846,
              0.006990658584982157,
              -0.028897017240524292
            ],
            [
              0.023287223652005196,
              0.01754646934568882,
              -0.004834921099245548,
              -0.03653121739625931,
              0.00706977304071188,
              -0.02779119461774826,
              0.002181076677516103,
              -0.01138261053711176
            ]
          ],
          "out_proj": [
            [
              0.0008588135824538767,
              0.007688749115914106,
              0.007785323075950146,
              -0.0034947972744703293,
              -0.0028716623783111572,
              0.006869695149362087,
              -0.009709035977721214,
              0.011855076067149639,
              -0.0052901641465723515,
              0.006934824865311384,
              0.016683269292116165,
              -0.0034763666335493326,
              -0.0036910204216837883,
              0.01292454730719328,
              0.014818507246673107,
              0.0015075148548930883
            ],
            [
              -0.013312882743775845,
              -0.008076782338321209,
              0.0021435755770653486,
              -0.01081942394375801,
              0.0031368674244731665,
              -0.015055104158818722,
              0.008274666033685207,
              -0.005379048641771078,
              -0.0017593229422345757,
              -0.003163123270496726,
              -0.007828895933926105,
              0.004956764634698629,
              -0.0014499850803986192,
              0.00229947199113667,
              -0.01086023636162281,
              0.003330990904942155
            ],
            [
              0.004286081995815039,
              0.000609527574852109,
              0.0011737102176994085,
              -0.007499939762055874,
              0.001100259250961244,
              -0.0011999834096059203,
              0.010758057236671448,
              0.0011184094473719597,
              -0.0017066289437934756,
              -0.016971640288829803,
              0.011441160924732685,
              0.011237544938921928,
              0.002252669772133231,
              0.005111211445182562,
              0.006106084678322077,
              -0.0038197271060198545
            ],
            [
              -0.007713094353675842,
              -0.003359562484547496,
              0.0038068038411438465,
              0.004332851152867079,
              0.0018059920985251665,
              -0.0029406805988401175,
              0.015358449891209602,
              -0.0013023418141528964,
              0.005737509578466415,
              -0.0018158885650336742,
              0.009828781709074974,
              0.0002042097330559045,
              -0.011555822566151619,
              0.005717420019209385,
              -0.005695813335478306,
              -0.0034091647248715162
            ],
            [
              0.0004432451678439975,
              -0.008802425116300583,
              0.000281766609987244,
              -0.003961628302931786,
              0.010125091299414635,
              -0.013130567967891693,
              0.0006692482274957001,
              -0.009031491354107857,
              -0.0011472158366814256,
              -0.008602233603596687,
              0.0020137550309300423,
              -0.0004969318979419768,
              -0.003447770606726408,
              0.0026490448508411646,
              -0.00773685984313488,
              -0.002947376575320959
            ],
            [
              0.005649541970342398,
              -0.00023619072453584522,
              -0.016757601872086525,
              -0.01221565343439579,
              -0.007375473156571388,
              -0.005993719678372145,
              0.0038423992227762938,
              0.008758103474974632,
              -0.005217103287577629,
              0.0029960721731185913,
              0.005121525377035141,
              0.011501588858664036,
              -0.0031040364410728216,
              -0.007297193631529808,
              -0.006403975188732147,
              -0.007745389360934496
            ],
            [
              -0.0008175964467227459,
              0.015176462009549141,
              -0.004553209058940411,
              -0.0025587144773453474,
              -0.0024270103313028812,
              -0.0033895173110067844,
              -0.0039590331725776196,
              -0.005794805940240622,
              0.014560914598405361,
              0.0005289730615913868,
              0.0078052375465631485,
              -0.0002707762469071895,
              0.007069764658808708,
              0.006954554934054613,
              -0.004310669377446175,
              -0.001599724288098514
            ],
            [
              0.015435324981808662,
              -0.009632330387830734,
              -0.006894734222441912,
              -0.003324921242892742,
              -0.01268389169126749,
              0.0031472642440348864,
              0.005935367196798325,
              -0.0019078979967162013,
              -0.0010476235765963793,
              0.010211418382823467,
              -0.007922176271677017,
              -0.0035854573361575603,
              0.010185054503381252,
              -0.004268843214958906,
              0.009039816446602345,
              -0.008228194899857044
            ],
            [
              0.013868995942175388,
              0.003803426632657647,
              -0.017003631219267845,
              -0.008473538793623447,
              -0.007927125319838524,
              -0.004626309499144554,
              -0.0011899890378117561,
              0.006593165919184685,
              0.005379676818847656,
              -3.733018047569203e-06,
              -0.00010731716611189768,
              0.012662041001021862,
              -0.0008595213294029236,
              -0.015838898718357086,
              0.004338621627539396,
              -0.0035790433175861835
            ],
            [
              0.010431193746626377,
              0.00583731709048152,
              0.011951074004173279,
              -0.0014030387392267585,
              0.0018996108556166291,
              0.0013678196119144559,
              -0.002437385031953454,
              0.0045947907492518425,
              0.006951451301574707,
              -0.0082187345251441,
              -0.008196541108191013,
              0.019772008061408997,
              5.516333840205334e-05,
              -0.0009882593294605613,
              0.012708809226751328,
              -0.007177525199949741
            ],
            [
              0.006886298302561045,
              0.009471599012613297,
              -0.004598459228873253,
              0.011501628905534744,
              -0.006837515160441399,
              0.003911205101758242,
              -0.0046401056461036205,
              -0.0008099053520709276,
              0.005289570428431034,
              -0.0031280070543289185,
              -0.00795169547200203,
              0.005810413975268602,
              0.003936776425689459,
              -0.005009285639971495,
              0.0015806249575689435,
              0.003921028226613998
            ],
            [
              -0.007441843394190073,
              -0.0013530616415664554,
              -0.0006824179436080158,
              0.0027593248523771763,
              -0.010507581755518913,
              0.008311476558446884,
              0.005763242486864328,
              -0.003991213161498308,
              -0.008870631456375122,
              -0.004002522211521864,
              -0.014065648429095745,
              0.008245212025940418,
              0.008436611853539944,
              0.008882011286914349,
              0.007896595634520054,
              0.007426188327372074
            ],
            [
              -0.010660698637366295,
              -0.0037663180846720934,
              0.005634639877825975,
              -0.0009319974924437702,
              -0.004668544512242079,
              0.006563572213053703,
              -0.00506971962749958,
              -0.016120366752147675,
              0.012874707579612732,
              -0.0031729978509247303,
              -0.0050657643005251884,
              -0.0020006345584988594,
              0.0015696064801886678,
              -0.005801341030746698,
              0.0031416756100952625,
